Language model created by QuickLM on Tue Aug  9 21:55:56 EDT 2016
Copyright (c) 1996-2010 Carnegie Mellon University and Alexander I. Rudnicky

The model is in standard ARPA format, designed by Doug Paul while he was at MITRE.

The code that was used to produce this language model is available in Open Source.
Please visit http://www.speech.cs.cmu.edu/tools/ for more information

The (fixed) discount mass is 0.5. The backoffs are computed using the ratio method.
This model based on a corpus of 23 sentences and 25 words

\data\
ngram 1=25
ngram 2=46
ngram 3=23

\1-grams:
-0.7782 </s> -0.3010
-0.7782 <s> -0.2218
-2.1399 CLOSE-LEFT-HAND -0.2218
-2.1399 CLOSE-RIGHT-HAND -0.2218
-2.1399 CREATE-NEW-ACTION -0.2218
-2.1399 DELETE-ALL-STEPS -0.2218
-2.1399 DELETE-LAST-STEP -0.2218
-2.1399 EXECUTE-ACTION -0.2218
-2.1399 FREEZE-HEAD -0.2218
-2.1399 FREEZE-LEFT-ARM -0.2218
-2.1399 FREEZE-RIGHT-ARM -0.2218
-2.1399 NEXT-ACTION -0.2218
-2.1399 OPEN-LEFT-HAND -0.2218
-2.1399 OPEN-RIGHT-HAND -0.2218
-2.1399 PREVIOUS-ACTION -0.2218
-2.1399 RECORD-CUSTOM-LANDMARK -0.2218
-2.1399 RECORD-OBJECT-POSE -0.2218
-2.1399 RELAX-HEAD -0.2218
-2.1399 RELAX-LEFT-ARM -0.2218
-2.1399 RELAX-RIGHT-ARM -0.2218
-2.1399 SAVE-POSE -0.2218
-2.1399 START-RECORDING-MOTION -0.2218
-2.1399 STOP-EXECUTION -0.2218
-2.1399 STOP-RECORDING-MOTION -0.2218
-2.1399 TEST-MICROPHONE -0.2218

\2-grams:
-1.6628 <s> CLOSE-LEFT-HAND 0.0000
-1.6628 <s> CLOSE-RIGHT-HAND 0.0000
-1.6628 <s> CREATE-NEW-ACTION 0.0000
-1.6628 <s> DELETE-ALL-STEPS 0.0000
-1.6628 <s> DELETE-LAST-STEP 0.0000
-1.6628 <s> EXECUTE-ACTION 0.0000
-1.6628 <s> FREEZE-HEAD 0.0000
-1.6628 <s> FREEZE-LEFT-ARM 0.0000
-1.6628 <s> FREEZE-RIGHT-ARM 0.0000
-1.6628 <s> NEXT-ACTION 0.0000
-1.6628 <s> OPEN-LEFT-HAND 0.0000
-1.6628 <s> OPEN-RIGHT-HAND 0.0000
-1.6628 <s> PREVIOUS-ACTION 0.0000
-1.6628 <s> RECORD-CUSTOM-LANDMARK 0.0000
-1.6628 <s> RECORD-OBJECT-POSE 0.0000
-1.6628 <s> RELAX-HEAD 0.0000
-1.6628 <s> RELAX-LEFT-ARM 0.0000
-1.6628 <s> RELAX-RIGHT-ARM 0.0000
-1.6628 <s> SAVE-POSE 0.0000
-1.6628 <s> START-RECORDING-MOTION 0.0000
-1.6628 <s> STOP-EXECUTION 0.0000
-1.6628 <s> STOP-RECORDING-MOTION 0.0000
-1.6628 <s> TEST-MICROPHONE 0.0000
-0.3010 CLOSE-LEFT-HAND </s> -0.3010
-0.3010 CLOSE-RIGHT-HAND </s> -0.3010
-0.3010 CREATE-NEW-ACTION </s> -0.3010
-0.3010 DELETE-ALL-STEPS </s> -0.3010
-0.3010 DELETE-LAST-STEP </s> -0.3010
-0.3010 EXECUTE-ACTION </s> -0.3010
-0.3010 FREEZE-HEAD </s> -0.3010
-0.3010 FREEZE-LEFT-ARM </s> -0.3010
-0.3010 FREEZE-RIGHT-ARM </s> -0.3010
-0.3010 NEXT-ACTION </s> -0.3010
-0.3010 OPEN-LEFT-HAND </s> -0.3010
-0.3010 OPEN-RIGHT-HAND </s> -0.3010
-0.3010 PREVIOUS-ACTION </s> -0.3010
-0.3010 RECORD-CUSTOM-LANDMARK </s> -0.3010
-0.3010 RECORD-OBJECT-POSE </s> -0.3010
-0.3010 RELAX-HEAD </s> -0.3010
-0.3010 RELAX-LEFT-ARM </s> -0.3010
-0.3010 RELAX-RIGHT-ARM </s> -0.3010
-0.3010 SAVE-POSE </s> -0.3010
-0.3010 START-RECORDING-MOTION </s> -0.3010
-0.3010 STOP-EXECUTION </s> -0.3010
-0.3010 STOP-RECORDING-MOTION </s> -0.3010
-0.3010 TEST-MICROPHONE </s> -0.3010

\3-grams:
-0.3010 <s> CLOSE-LEFT-HAND </s>
-0.3010 <s> CLOSE-RIGHT-HAND </s>
-0.3010 <s> CREATE-NEW-ACTION </s>
-0.3010 <s> DELETE-ALL-STEPS </s>
-0.3010 <s> DELETE-LAST-STEP </s>
-0.3010 <s> EXECUTE-ACTION </s>
-0.3010 <s> FREEZE-HEAD </s>
-0.3010 <s> FREEZE-LEFT-ARM </s>
-0.3010 <s> FREEZE-RIGHT-ARM </s>
-0.3010 <s> NEXT-ACTION </s>
-0.3010 <s> OPEN-LEFT-HAND </s>
-0.3010 <s> OPEN-RIGHT-HAND </s>
-0.3010 <s> PREVIOUS-ACTION </s>
-0.3010 <s> RECORD-CUSTOM-LANDMARK </s>
-0.3010 <s> RECORD-OBJECT-POSE </s>
-0.3010 <s> RELAX-HEAD </s>
-0.3010 <s> RELAX-LEFT-ARM </s>
-0.3010 <s> RELAX-RIGHT-ARM </s>
-0.3010 <s> SAVE-POSE </s>
-0.3010 <s> START-RECORDING-MOTION </s>
-0.3010 <s> STOP-EXECUTION </s>
-0.3010 <s> STOP-RECORDING-MOTION </s>
-0.3010 <s> TEST-MICROPHONE </s>

\end\
