Language model created by QuickLM on Tue Aug  9 19:43:29 EDT 2016
Copyright (c) 1996-2010 Carnegie Mellon University and Alexander I. Rudnicky

The model is in standard ARPA format, designed by Doug Paul while he was at MITRE.

The code that was used to produce this language model is available in Open Source.
Please visit http://www.speech.cs.cmu.edu/tools/ for more information

The (fixed) discount mass is 0.5. The backoffs are computed using the ratio method.
This model based on a corpus of 22 sentences and 24 words

\data\
ngram 1=24
ngram 2=44
ngram 3=22

\1-grams:
-0.7782 </s> -0.3010
-0.7782 <s> -0.2218
-2.1206 CLOSE-LEFT-HAND -0.2218
-2.1206 CLOSE-RIGHT-HAND -0.2218
-2.1206 CREATE-NEW-ACTION -0.2218
-2.1206 DELETE-ALL-STEPS -0.2218
-2.1206 DELETE-LAST-STEP -0.2218
-2.1206 EXECUTE-ACTION -0.2218
-2.1206 FREEZE-HEAD -0.2218
-2.1206 FREEZE-LEFT-ARM -0.2218
-2.1206 FREEZE-RIGHT-ARM -0.2218
-2.1206 NEXT-ACTION -0.2218
-2.1206 OPEN-LEFT-HAND -0.2218
-2.1206 OPEN-RIGHT-HAND -0.2218
-2.1206 PREVIOUS-ACTION -0.2218
-2.1206 RECORD-OBJECT-POSE -0.2218
-2.1206 RELAX-HEAD -0.2218
-2.1206 RELAX-LEFT-ARM -0.2218
-2.1206 RELAX-RIGHT-ARM -0.2218
-2.1206 SAVE-POSE -0.2218
-2.1206 START-RECORDING-MOTION -0.2218
-2.1206 STOP-EXECUTION -0.2218
-2.1206 STOP-RECORDING-MOTION -0.2218
-2.1206 TEST-MICROPHONE -0.2218

\2-grams:
-1.6435 <s> CLOSE-LEFT-HAND 0.0000
-1.6435 <s> CLOSE-RIGHT-HAND 0.0000
-1.6435 <s> CREATE-NEW-ACTION 0.0000
-1.6435 <s> DELETE-ALL-STEPS 0.0000
-1.6435 <s> DELETE-LAST-STEP 0.0000
-1.6435 <s> EXECUTE-ACTION 0.0000
-1.6435 <s> FREEZE-HEAD 0.0000
-1.6435 <s> FREEZE-LEFT-ARM 0.0000
-1.6435 <s> FREEZE-RIGHT-ARM 0.0000
-1.6435 <s> NEXT-ACTION 0.0000
-1.6435 <s> OPEN-LEFT-HAND 0.0000
-1.6435 <s> OPEN-RIGHT-HAND 0.0000
-1.6435 <s> PREVIOUS-ACTION 0.0000
-1.6435 <s> RECORD-OBJECT-POSE 0.0000
-1.6435 <s> RELAX-HEAD 0.0000
-1.6435 <s> RELAX-LEFT-ARM 0.0000
-1.6435 <s> RELAX-RIGHT-ARM 0.0000
-1.6435 <s> SAVE-POSE 0.0000
-1.6435 <s> START-RECORDING-MOTION 0.0000
-1.6435 <s> STOP-EXECUTION 0.0000
-1.6435 <s> STOP-RECORDING-MOTION 0.0000
-1.6435 <s> TEST-MICROPHONE 0.0000
-0.3010 CLOSE-LEFT-HAND </s> -0.3010
-0.3010 CLOSE-RIGHT-HAND </s> -0.3010
-0.3010 CREATE-NEW-ACTION </s> -0.3010
-0.3010 DELETE-ALL-STEPS </s> -0.3010
-0.3010 DELETE-LAST-STEP </s> -0.3010
-0.3010 EXECUTE-ACTION </s> -0.3010
-0.3010 FREEZE-HEAD </s> -0.3010
-0.3010 FREEZE-LEFT-ARM </s> -0.3010
-0.3010 FREEZE-RIGHT-ARM </s> -0.3010
-0.3010 NEXT-ACTION </s> -0.3010
-0.3010 OPEN-LEFT-HAND </s> -0.3010
-0.3010 OPEN-RIGHT-HAND </s> -0.3010
-0.3010 PREVIOUS-ACTION </s> -0.3010
-0.3010 RECORD-OBJECT-POSE </s> -0.3010
-0.3010 RELAX-HEAD </s> -0.3010
-0.3010 RELAX-LEFT-ARM </s> -0.3010
-0.3010 RELAX-RIGHT-ARM </s> -0.3010
-0.3010 SAVE-POSE </s> -0.3010
-0.3010 START-RECORDING-MOTION </s> -0.3010
-0.3010 STOP-EXECUTION </s> -0.3010
-0.3010 STOP-RECORDING-MOTION </s> -0.3010
-0.3010 TEST-MICROPHONE </s> -0.3010

\3-grams:
-0.3010 <s> CLOSE-LEFT-HAND </s>
-0.3010 <s> CLOSE-RIGHT-HAND </s>
-0.3010 <s> CREATE-NEW-ACTION </s>
-0.3010 <s> DELETE-ALL-STEPS </s>
-0.3010 <s> DELETE-LAST-STEP </s>
-0.3010 <s> EXECUTE-ACTION </s>
-0.3010 <s> FREEZE-HEAD </s>
-0.3010 <s> FREEZE-LEFT-ARM </s>
-0.3010 <s> FREEZE-RIGHT-ARM </s>
-0.3010 <s> NEXT-ACTION </s>
-0.3010 <s> OPEN-LEFT-HAND </s>
-0.3010 <s> OPEN-RIGHT-HAND </s>
-0.3010 <s> PREVIOUS-ACTION </s>
-0.3010 <s> RECORD-OBJECT-POSE </s>
-0.3010 <s> RELAX-HEAD </s>
-0.3010 <s> RELAX-LEFT-ARM </s>
-0.3010 <s> RELAX-RIGHT-ARM </s>
-0.3010 <s> SAVE-POSE </s>
-0.3010 <s> START-RECORDING-MOTION </s>
-0.3010 <s> STOP-EXECUTION </s>
-0.3010 <s> STOP-RECORDING-MOTION </s>
-0.3010 <s> TEST-MICROPHONE </s>

\end\
